{"intercept":0.0,"weights":[-85.17377063809971,-37.16417726662627,-30.83889794692063,-30.153078542332707,-28.331833302172615,-33.14645334810059,-57.18002673046134,-35.88283287686627,-18.43410816960955,-9.36909168304171,-6.463618367561902,-3.385154836043061,-23.337525358788834,-2.419189340894735,0.6663795475673701,0.4766111873872678,0.46187854338130674,0.39562441698884293,-0.02078957312701571,-0.020829449499339334,-0.02087949740711524,-240.85837698347166,-240.5172085694913,-240.15594861318516,-239.5292624123598,-238.8806140006426,-238.07913708791347,16.85861447109831,73.91153035963855,82.86390942032278,82.26197261446184,88.01489966514245,-10.881021133682335,37.15500694571451,45.62050921046593,43.585369307145015,47.596169457719505,-21.3973374461098,-0.5367771819141831,1.565928537422277,0.8910075888081685,3.8055367360596906,3.4531335365498412,14.20623986640468,15.445868614788585,14.934544005666439,14.534121079827816,8.291290588575055,13.367047308971692,14.291996856243708,15.05920094313613,16.837411026251452,15.0487551970778,10.54800688113994,8.197678198923498,-4.34109173122701,-19.845442884190838,-1.6180468456919255,-1.9947890666677872,-2.468067592049926,-1.2672946912018406E-4,-1.5809210885220143E-4,-1.954995428279384E-4,-2.6460304979878643E-4,-3.413753322111646E-4,-4.221637254261449E-4,-240.70047503025023,-240.40422627617983,-240.05021110543322,-239.39707752809358,-238.67111827755974,-237.90783486380752,-14.072462356895626,-31.542864319558483,-19.83338419049082,-34.113727062935546,-17.828351012723445,-29.73370956128883,-16.62176413415709,-24.46313642001028,-25.18937173570452,-30.573371564453353,-24.680073674180836,-28.79950582915025],"max":0.0,"min":0.0}