{"intercept":0.0,"weights":[-60.711057415266914,-9.662179349346319,27.257461584221087,35.64691511739143,18.26856297054365,53.635647092673196,-50.904436187420984,-23.681292433533528,-11.540144023878836,-5.1043062091758635,-3.0096285914870626,-0.24457649643696966,-26.936198213942884,-3.694496695162353,0.48052382234338087,0.2926248653959357,0.18936203380020886,0.17860073777479551,-0.017846662234802142,-0.017869529105496135,-0.017879704047976966,-286.5721179634128,-286.30033548974933,-286.07610888513034,-285.80477213116035,-285.6084571412648,-285.3642495738531,13.421555141297397,67.9610640946381,65.62359837025247,61.81201053199774,64.56827683842617,1.134175168519966,46.05048948258296,40.647281277094876,35.93501005880431,40.42030310540335,10.319622085828554,28.463721599300747,25.060130884020815,20.71637132484551,23.708379705848287,18.383020628778922,26.97259808900481,26.580071690067456,26.85855317650633,27.28665521591154,19.89422898815714,23.016328771242787,22.743893203921903,22.452657514679704,23.21297400135423,23.463987405088606,25.45545047936721,33.24408951348531,44.84270406405952,59.48887106754008,-1.4775609040456406,-1.6931242338558825,-1.788842172418245,-1.16593264786446E-4,-1.4277521484622869E-4,-1.6465597462146504E-4,-1.931376377360563E-4,-2.1069781291359628E-4,-2.2597270790377695E-4,-286.4323626487018,-286.1847897218551,-285.9779664312429,-285.7093669088073,-285.5438615685169,-285.3996400271575,-2.123913661608828,-18.48653681124747,-4.7732229026383015,-18.876271384667014,-2.3716106593877986,-13.11932625706866,-1.6566976124297144,-8.33776218339861,-0.21959357479345876,-4.618225587820004,-4.872524552542135,-8.152238121708194],"max":0.0,"min":0.0}